<?xml version="1.0"?>
<opencv_storage>
<cascade>
  <stageType>BOOST</stageType>
  <featureType>HAAR</featureType>
  <height>70</height>
  <width>30</width>
  <stageParams>
    <boostType>GAB</boostType>
    <minHitRate>9.9500000476837158e-01</minHitRate>
    <maxFalseAlarm>5.0000000000000000e-01</maxFalseAlarm>
    <weightTrimRate>9.4999998807907104e-01</weightTrimRate>
    <maxDepth>1</maxDepth>
    <maxWeakCount>100</maxWeakCount></stageParams>
  <featureParams>
    <maxCatCount>0</maxCatCount>
    <featSize>1</featSize>
    <mode>BASIC</mode></featureParams>
  <stageNum>7</stageNum>
  <stages>
    <!-- stage 0 -->
    <_>
      <maxWeakCount>2</maxWeakCount>
      <stageThreshold>-5.1628693938255310e-02</stageThreshold>
      <weakClassifiers>
        <_>
          <internalNodes>
            0 -1 8 7.9896137118339539e-02</internalNodes>
          <leafValues>
            -9.9526625871658325e-01 9.3277311325073242e-01</leafValues></_>
        <_>
          <internalNodes>
            0 -1 7 -3.6650560796260834e-02</internalNodes>
          <leafValues>
            9.5904654264450073e-01 -9.8440182209014893e-01</leafValues></_></weakClassifiers></_>
    <!-- stage 1 -->
    <_>
      <maxWeakCount>2</maxWeakCount>
      <stageThreshold>-1.6022190451622009e-01</stageThreshold>
      <weakClassifiers>
        <_>
          <internalNodes>
            0 -1 6 1.2876099348068237e-01</internalNodes>
          <leafValues>
            -9.9409681558609009e-01 9.4900852441787720e-01</leafValues></_>
        <_>
          <internalNodes>
            0 -1 13 7.1541212499141693e-02</internalNodes>
          <leafValues>
            -9.8791098594665527e-01 8.3387488126754761e-01</leafValues></_></weakClassifiers></_>
    <!-- stage 2 -->
    <_>
      <maxWeakCount>2</maxWeakCount>
      <stageThreshold>-3.7634998559951782e-01</stageThreshold>
      <weakClassifiers>
        <_>
          <internalNodes>
            0 -1 3 6.2054969370365143e-02</internalNodes>
          <leafValues>
            -9.7463768720626831e-01 6.7774933576583862e-01</leafValues></_>
        <_>
          <internalNodes>
            0 -1 2 3.9263650774955750e-02</internalNodes>
          <leafValues>
            -9.8064398765563965e-01 5.9828770160675049e-01</leafValues></_></weakClassifiers></_>
    <!-- stage 3 -->
    <_>
      <maxWeakCount>2</maxWeakCount>
      <stageThreshold>-3.7020877003669739e-01</stageThreshold>
      <weakClassifiers>
        <_>
          <internalNodes>
            0 -1 1 4.5748818665742874e-03</internalNodes>
          <leafValues>
            -9.4523811340332031e-01 6.5122616291046143e-01</leafValues></_>
        <_>
          <internalNodes>
            0 -1 0 -7.8076094388961792e-02</internalNodes>
          <leafValues>
            5.7502931356430054e-01 -9.8348170518875122e-01</leafValues></_></weakClassifiers></_>
    <!-- stage 4 -->
    <_>
      <maxWeakCount>3</maxWeakCount>
      <stageThreshold>-1.3424071073532104e+00</stageThreshold>
      <weakClassifiers>
        <_>
          <internalNodes>
            0 -1 12 6.5081648062914610e-04</internalNodes>
          <leafValues>
            -9.5107400417327881e-01 6.6037738323211670e-01</leafValues></_>
        <_>
          <internalNodes>
            0 -1 10 -1.2741613900288939e-03</internalNodes>
          <leafValues>
            6.6142016649246216e-01 -9.4287317991256714e-01</leafValues></_>
        <_>
          <internalNodes>
            0 -1 5 -1.0795691981911659e-02</internalNodes>
          <leafValues>
            5.5154001712799072e-01 -9.6888232231140137e-01</leafValues></_></weakClassifiers></_>
    <!-- stage 5 -->
    <_>
      <maxWeakCount>2</maxWeakCount>
      <stageThreshold>-5.8488601446151733e-01</stageThreshold>
      <weakClassifiers>
        <_>
          <internalNodes>
            0 -1 15 6.1557283625006676e-03</internalNodes>
          <leafValues>
            -9.5379936695098877e-01 5.4726368188858032e-01</leafValues></_>
        <_>
          <internalNodes>
            0 -1 9 -3.2317428849637508e-03</internalNodes>
          <leafValues>
            3.6891338229179382e-01 -9.9821674823760986e-01</leafValues></_></weakClassifiers></_>
    <!-- stage 6 -->
    <_>
      <maxWeakCount>3</maxWeakCount>
      <stageThreshold>-1.3980890512466431e+00</stageThreshold>
      <weakClassifiers>
        <_>
          <internalNodes>
            0 -1 4 -5.1665343344211578e-03</internalNodes>
          <leafValues>
            4.2168673872947693e-01 -9.3382352590560913e-01</leafValues></_>
        <_>
          <internalNodes>
            0 -1 11 -6.8489955738186836e-03</internalNodes>
          <leafValues>
            4.9323678016662598e-01 -8.5852617025375366e-01</leafValues></_>
        <_>
          <internalNodes>
            0 -1 14 -1.3681933050975204e-03</internalNodes>
          <leafValues>
            3.9426055550575256e-01 -8.7061202526092529e-01</leafValues></_></weakClassifiers></_></stages>
  <features>
    <_>
      <rects>
        <_>
          0 23 10 42 -1.</_>
        <_>
          5 23 5 42 2.</_></rects>
      <tilted>0</tilted></_>
    <_>
      <rects>
        <_>
          0 27 6 8 -1.</_>
        <_>
          0 27 3 4 2.</_>
        <_>
          3 31 3 4 2.</_></rects>
      <tilted>0</tilted></_>
    <_>
      <rects>
        <_>
          1 41 28 12 -1.</_>
        <_>
          1 41 14 6 2.</_>
        <_>
          15 47 14 6 2.</_></rects>
      <tilted>0</tilted></_>
    <_>
      <rects>
        <_>
          2 15 26 16 -1.</_>
        <_>
          2 15 13 8 2.</_>
        <_>
          15 23 13 8 2.</_></rects>
      <tilted>0</tilted></_>
    <_>
      <rects>
        <_>
          3 0 8 10 -1.</_>
        <_>
          3 0 4 5 2.</_>
        <_>
          7 5 4 5 2.</_></rects>
      <tilted>0</tilted></_>
    <_>
      <rects>
        <_>
          5 32 2 24 -1.</_>
        <_>
          5 44 2 12 2.</_></rects>
      <tilted>0</tilted></_>
    <_>
      <rects>
        <_>
          8 2 15 65 -1.</_>
        <_>
          13 2 5 65 3.</_></rects>
      <tilted>0</tilted></_>
    <_>
      <rects>
        <_>
          11 15 6 18 -1.</_>
        <_>
          11 21 6 6 3.</_></rects>
      <tilted>0</tilted></_>
    <_>
      <rects>
        <_>
          12 18 8 33 -1.</_>
        <_>
          12 29 8 11 3.</_></rects>
      <tilted>0</tilted></_>
    <_>
      <rects>
        <_>
          13 55 10 5 -1.</_>
        <_>
          18 55 5 5 2.</_></rects>
      <tilted>0</tilted></_>
    <_>
      <rects>
        <_>
          14 0 8 6 -1.</_>
        <_>
          14 0 4 3 2.</_>
        <_>
          18 3 4 3 2.</_></rects>
      <tilted>0</tilted></_>
    <_>
      <rects>
        <_>
          14 33 14 10 -1.</_>
        <_>
          14 33 7 5 2.</_>
        <_>
          21 38 7 5 2.</_></rects>
      <tilted>0</tilted></_>
    <_>
      <rects>
        <_>
          17 62 4 8 -1.</_>
        <_>
          17 62 2 4 2.</_>
        <_>
          19 66 2 4 2.</_></rects>
      <tilted>0</tilted></_>
    <_>
      <rects>
        <_>
          20 16 10 39 -1.</_>
        <_>
          25 16 5 39 2.</_></rects>
      <tilted>0</tilted></_>
    <_>
      <rects>
        <_>
          21 5 4 16 -1.</_>
        <_>
          21 5 2 8 2.</_>
        <_>
          23 13 2 8 2.</_></rects>
      <tilted>0</tilted></_>
    <_>
      <rects>
        <_>
          24 10 6 10 -1.</_>
        <_>
          24 10 3 5 2.</_>
        <_>
          27 15 3 5 2.</_></rects>
      <tilted>0</tilted></_></features></cascade>
</opencv_storage>
