<?xml version="1.0"?>
<opencv_storage>
<cascade>
  <stageType>BOOST</stageType>
  <featureType>HAAR</featureType>
  <height>70</height>
  <width>30</width>
  <stageParams>
    <boostType>GAB</boostType>
    <minHitRate>9.9500000476837158e-01</minHitRate>
    <maxFalseAlarm>5.0000000000000000e-01</maxFalseAlarm>
    <weightTrimRate>9.4999998807907104e-01</weightTrimRate>
    <maxDepth>1</maxDepth>
    <maxWeakCount>100</maxWeakCount></stageParams>
  <featureParams>
    <maxCatCount>0</maxCatCount>
    <featSize>1</featSize>
    <mode>BASIC</mode></featureParams>
  <stageNum>9</stageNum>
  <stages>
    <!-- stage 0 -->
    <_>
      <maxWeakCount>2</maxWeakCount>
      <stageThreshold>-1.3151511549949646e-01</stageThreshold>
      <weakClassifiers>
        <_>
          <internalNodes>
            0 -1 17 3.9053399115800858e-02</internalNodes>
          <leafValues>
            -9.9153566360473633e-01 9.1061455011367798e-01</leafValues></_>
        <_>
          <internalNodes>
            0 -1 13 -1.9271474331617355e-02</internalNodes>
          <leafValues>
            8.6002057790756226e-01 -9.8873770236968994e-01</leafValues></_></weakClassifiers></_>
    <!-- stage 1 -->
    <_>
      <maxWeakCount>2</maxWeakCount>
      <stageThreshold>-6.6139943897724152e-02</stageThreshold>
      <weakClassifiers>
        <_>
          <internalNodes>
            0 -1 15 -2.1300509572029114e-01</internalNodes>
          <leafValues>
            9.5415472984313965e-01 -9.9037885665893555e-01</leafValues></_>
        <_>
          <internalNodes>
            0 -1 1 -1.4840805530548096e-01</internalNodes>
          <leafValues>
            9.2423886060714722e-01 -9.9390101432800293e-01</leafValues></_></weakClassifiers></_>
    <!-- stage 2 -->
    <_>
      <maxWeakCount>3</maxWeakCount>
      <stageThreshold>-1.3343323469161987e+00</stageThreshold>
      <weakClassifiers>
        <_>
          <internalNodes>
            0 -1 0 3.1704050488770008e-03</internalNodes>
          <leafValues>
            -9.7443699836730957e-01 7.7777779102325439e-01</leafValues></_>
        <_>
          <internalNodes>
            0 -1 4 2.8088890016078949e-02</internalNodes>
          <leafValues>
            -9.7241944074630737e-01 7.6111882925033569e-01</leafValues></_>
        <_>
          <internalNodes>
            0 -1 9 -1.3418677449226379e-01</internalNodes>
          <leafValues>
            6.1252409219741821e-01 -9.9698519706726074e-01</leafValues></_></weakClassifiers></_>
    <!-- stage 3 -->
    <_>
      <maxWeakCount>3</maxWeakCount>
      <stageThreshold>-1.4114550352096558e+00</stageThreshold>
      <weakClassifiers>
        <_>
          <internalNodes>
            0 -1 22 8.1430431455373764e-03</internalNodes>
          <leafValues>
            -9.4961005449295044e-01 7.7971017360687256e-01</leafValues></_>
        <_>
          <internalNodes>
            0 -1 23 1.1500417254865170e-02</internalNodes>
          <leafValues>
            -9.4745725393295288e-01 5.1929539442062378e-01</leafValues></_>
        <_>
          <internalNodes>
            0 -1 8 1.3487504795193672e-02</internalNodes>
          <leafValues>
            -9.8114043474197388e-01 5.7932686805725098e-01</leafValues></_></weakClassifiers></_>
    <!-- stage 4 -->
    <_>
      <maxWeakCount>3</maxWeakCount>
      <stageThreshold>-1.2912296056747437e+00</stageThreshold>
      <weakClassifiers>
        <_>
          <internalNodes>
            0 -1 6 -2.8489562682807446e-03</internalNodes>
          <leafValues>
            5.6892228126525879e-01 -9.5536267757415771e-01</leafValues></_>
        <_>
          <internalNodes>
            0 -1 3 1.3532175216823816e-03</internalNodes>
          <leafValues>
            -9.5736545324325562e-01 6.0657292604446411e-01</leafValues></_>
        <_>
          <internalNodes>
            0 -1 21 -1.1740205809473991e-03</internalNodes>
          <leafValues>
            6.2149858474731445e-01 -9.3895387649536133e-01</leafValues></_></weakClassifiers></_>
    <!-- stage 5 -->
    <_>
      <maxWeakCount>3</maxWeakCount>
      <stageThreshold>-1.3886054754257202e+00</stageThreshold>
      <weakClassifiers>
        <_>
          <internalNodes>
            0 -1 10 4.6707768924534321e-03</internalNodes>
          <leafValues>
            -9.6259349584579468e-01 5.6372547149658203e-01</leafValues></_>
        <_>
          <internalNodes>
            0 -1 16 -4.9329262226819992e-02</internalNodes>
          <leafValues>
            5.0357115268707275e-01 -9.2772376537322998e-01</leafValues></_>
        <_>
          <internalNodes>
            0 -1 20 3.2759897876530886e-03</internalNodes>
          <leafValues>
            -9.2958313226699829e-01 5.6415843963623047e-01</leafValues></_></weakClassifiers></_>
    <!-- stage 6 -->
    <_>
      <maxWeakCount>3</maxWeakCount>
      <stageThreshold>-1.5116374492645264e+00</stageThreshold>
      <weakClassifiers>
        <_>
          <internalNodes>
            0 -1 12 -7.5908698141574860e-02</internalNodes>
          <leafValues>
            5.3424656391143799e-01 -9.1621130704879761e-01</leafValues></_>
        <_>
          <internalNodes>
            0 -1 7 -7.1113174781203270e-03</internalNodes>
          <leafValues>
            4.5258137583732605e-01 -9.3804085254669189e-01</leafValues></_>
        <_>
          <internalNodes>
            0 -1 14 1.1132529471069574e-03</internalNodes>
          <leafValues>
            -9.7140491008758545e-01 3.4261476993560791e-01</leafValues></_></weakClassifiers></_>
    <!-- stage 7 -->
    <_>
      <maxWeakCount>3</maxWeakCount>
      <stageThreshold>-1.4923061132431030e+00</stageThreshold>
      <weakClassifiers>
        <_>
          <internalNodes>
            0 -1 2 1.2446627020835876e-02</internalNodes>
          <leafValues>
            -9.6026492118835449e-01 2.7091634273529053e-01</leafValues></_>
        <_>
          <internalNodes>
            0 -1 18 1.4618162065744400e-02</internalNodes>
          <leafValues>
            -9.6106678247451782e-01 3.1984966993331909e-01</leafValues></_>
        <_>
          <internalNodes>
            0 -1 19 2.4476177059113979e-03</internalNodes>
          <leafValues>
            -8.0215567350387573e-01 6.0544502735137939e-01</leafValues></_></weakClassifiers></_>
    <!-- stage 8 -->
    <_>
      <maxWeakCount>2</maxWeakCount>
      <stageThreshold>-7.6595777273178101e-01</stageThreshold>
      <weakClassifiers>
        <_>
          <internalNodes>
            0 -1 5 6.1012931168079376e-02</internalNodes>
          <leafValues>
            -9.4381272792816162e-01 1.8762089312076569e-01</leafValues></_>
        <_>
          <internalNodes>
            0 -1 11 1.6866505146026611e-01</internalNodes>
          <leafValues>
            -9.5357865095138550e-01 3.8896548748016357e-01</leafValues></_></weakClassifiers></_></stages>
  <features>
    <_>
      <rects>
        <_>
          0 27 6 8 -1.</_>
        <_>
          0 27 3 4 2.</_>
        <_>
          3 31 3 4 2.</_></rects>
      <tilted>0</tilted></_>
    <_>
      <rects>
        <_>
          0 28 18 40 -1.</_>
        <_>
          6 28 6 40 3.</_></rects>
      <tilted>0</tilted></_>
    <_>
      <rects>
        <_>
          0 46 6 24 -1.</_>
        <_>
          0 46 3 12 2.</_>
        <_>
          3 58 3 12 2.</_></rects>
      <tilted>0</tilted></_>
    <_>
      <rects>
        <_>
          0 52 6 6 -1.</_>
        <_>
          0 52 3 3 2.</_>
        <_>
          3 55 3 3 2.</_></rects>
      <tilted>0</tilted></_>
    <_>
      <rects>
        <_>
          1 43 26 10 -1.</_>
        <_>
          1 43 13 5 2.</_>
        <_>
          14 48 13 5 2.</_></rects>
      <tilted>0</tilted></_>
    <_>
      <rects>
        <_>
          2 16 26 14 -1.</_>
        <_>
          2 16 13 7 2.</_>
        <_>
          15 23 13 7 2.</_></rects>
      <tilted>0</tilted></_>
    <_>
      <rects>
        <_>
          3 2 8 8 -1.</_>
        <_>
          3 2 4 4 2.</_>
        <_>
          7 6 4 4 2.</_></rects>
      <tilted>0</tilted></_>
    <_>
      <rects>
        <_>
          3 14 8 5 -1.</_>
        <_>
          7 14 4 5 2.</_></rects>
      <tilted>0</tilted></_>
    <_>
      <rects>
        <_>
          4 21 3 24 -1.</_>
        <_>
          4 33 3 12 2.</_></rects>
      <tilted>0</tilted></_>
    <_>
      <rects>
        <_>
          4 31 14 36 -1.</_>
        <_>
          4 43 14 12 3.</_></rects>
      <tilted>0</tilted></_>
    <_>
      <rects>
        <_>
          8 0 8 10 -1.</_>
        <_>
          8 0 4 5 2.</_>
        <_>
          12 5 4 5 2.</_></rects>
      <tilted>0</tilted></_>
    <_>
      <rects>
        <_>
          8 0 15 69 -1.</_>
        <_>
          13 0 5 69 3.</_></rects>
      <tilted>0</tilted></_>
    <_>
      <rects>
        <_>
          11 13 7 21 -1.</_>
        <_>
          11 20 7 7 3.</_></rects>
      <tilted>0</tilted></_>
    <_>
      <rects>
        <_>
          11 17 11 12 -1.</_>
        <_>
          11 21 11 4 3.</_></rects>
      <tilted>0</tilted></_>
    <_>
      <rects>
        <_>
          11 60 14 10 -1.</_>
        <_>
          11 60 7 5 2.</_>
        <_>
          18 65 7 5 2.</_></rects>
      <tilted>0</tilted></_>
    <_>
      <rects>
        <_>
          12 0 18 67 -1.</_>
        <_>
          18 0 6 67 3.</_></rects>
      <tilted>0</tilted></_>
    <_>
      <rects>
        <_>
          13 38 7 18 -1.</_>
        <_>
          13 44 7 6 3.</_></rects>
      <tilted>0</tilted></_>
    <_>
      <rects>
        <_>
          14 17 3 36 -1.</_>
        <_>
          14 29 3 12 3.</_></rects>
      <tilted>0</tilted></_>
    <_>
      <rects>
        <_>
          16 34 2 36 -1.</_>
        <_>
          16 52 2 18 2.</_></rects>
      <tilted>0</tilted></_>
    <_>
      <rects>
        <_>
          19 0 10 6 -1.</_>
        <_>
          19 0 5 3 2.</_>
        <_>
          24 3 5 3 2.</_></rects>
      <tilted>0</tilted></_>
    <_>
      <rects>
        <_>
          19 41 6 12 -1.</_>
        <_>
          19 41 3 6 2.</_>
        <_>
          22 47 3 6 2.</_></rects>
      <tilted>0</tilted></_>
    <_>
      <rects>
        <_>
          21 8 4 12 -1.</_>
        <_>
          21 8 2 6 2.</_>
        <_>
          23 14 2 6 2.</_></rects>
      <tilted>0</tilted></_>
    <_>
      <rects>
        <_>
          24 9 6 12 -1.</_>
        <_>
          24 9 3 6 2.</_>
        <_>
          27 15 3 6 2.</_></rects>
      <tilted>0</tilted></_>
    <_>
      <rects>
        <_>
          24 13 1 36 -1.</_>
        <_>
          24 25 1 12 3.</_></rects>
      <tilted>0</tilted></_></features></cascade>
</opencv_storage>
