<?xml version="1.0"?>
<opencv_storage>
<cascade>
  <stageType>BOOST</stageType>
  <featureType>HAAR</featureType>
  <height>50</height>
  <width>50</width>
  <stageParams>
    <boostType>GAB</boostType>
    <minHitRate>9.9500000476837158e-01</minHitRate>
    <maxFalseAlarm>5.0000000000000000e-01</maxFalseAlarm>
    <weightTrimRate>9.4999998807907104e-01</weightTrimRate>
    <maxDepth>1</maxDepth>
    <maxWeakCount>100</maxWeakCount></stageParams>
  <featureParams>
    <maxCatCount>0</maxCatCount>
    <featSize>1</featSize>
    <mode>BASIC</mode></featureParams>
  <stageNum>4</stageNum>
  <stages>
    <!-- stage 0 -->
    <_>
      <maxWeakCount>2</maxWeakCount>
      <stageThreshold>-2.9414862394332886e-01</stageThreshold>
      <weakClassifiers>
        <_>
          <internalNodes>
            0 -1 4 3.9561346173286438e-02</internalNodes>
          <leafValues>
            -9.9747157096862793e-01 6.1538463830947876e-01</leafValues></_>
        <_>
          <internalNodes>
            0 -1 3 1.7076891660690308e-01</internalNodes>
          <leafValues>
            -1. 7.0332294702529907e-01</leafValues></_></weakClassifiers></_>
    <!-- stage 1 -->
    <_>
      <maxWeakCount>1</maxWeakCount>
      <stageThreshold>7.5510203838348389e-01</stageThreshold>
      <weakClassifiers>
        <_>
          <internalNodes>
            0 -1 5 -4.3074063956737518e-02</internalNodes>
          <leafValues>
            7.5510203838348389e-01 -1.</leafValues></_></weakClassifiers></_>
    <!-- stage 2 -->
    <_>
      <maxWeakCount>2</maxWeakCount>
      <stageThreshold>-6.6937424242496490e-02</stageThreshold>
      <weakClassifiers>
        <_>
          <internalNodes>
            0 -1 0 6.4239874482154846e-02</internalNodes>
          <leafValues>
            -9.9749684333801270e-01 9.0909093618392944e-01</leafValues></_>
        <_>
          <internalNodes>
            0 -1 1 3.3776566851884127e-03</internalNodes>
          <leafValues>
            -9.7602832317352295e-01 9.5495736598968506e-01</leafValues></_></weakClassifiers></_>
    <!-- stage 3 -->
    <_>
      <maxWeakCount>3</maxWeakCount>
      <stageThreshold>-1.0956848859786987e+00</stageThreshold>
      <weakClassifiers>
        <_>
          <internalNodes>
            0 -1 7 3.5393904545344412e-04</internalNodes>
          <leafValues>
            -9.8997491598129272e-01 7.3333334922790527e-01</leafValues></_>
        <_>
          <internalNodes>
            0 -1 2 9.9955908954143524e-03</internalNodes>
          <leafValues>
            -9.5824503898620605e-01 9.0740334987640381e-01</leafValues></_>
        <_>
          <internalNodes>
            0 -1 6 6.2969175633043051e-04</internalNodes>
          <leafValues>
            -9.5020031929016113e-01 8.5253506898880005e-01</leafValues></_></weakClassifiers></_></stages>
  <features>
    <_>
      <rects>
        <_>
          3 0 32 38 -1.</_>
        <_>
          3 0 16 19 2.</_>
        <_>
          19 19 16 19 2.</_></rects>
      <tilted>0</tilted></_>
    <_>
      <rects>
        <_>
          6 22 24 1 -1.</_>
        <_>
          18 22 12 1 2.</_></rects>
      <tilted>0</tilted></_>
    <_>
      <rects>
        <_>
          16 28 12 6 -1.</_>
        <_>
          16 28 6 3 2.</_>
        <_>
          22 31 6 3 2.</_></rects>
      <tilted>0</tilted></_>
    <_>
      <rects>
        <_>
          18 3 32 28 -1.</_>
        <_>
          34 3 16 28 2.</_></rects>
      <tilted>0</tilted></_>
    <_>
      <rects>
        <_>
          26 9 6 21 -1.</_>
        <_>
          26 16 6 7 3.</_></rects>
      <tilted>0</tilted></_>
    <_>
      <rects>
        <_>
          27 17 12 16 -1.</_>
        <_>
          27 25 12 8 2.</_></rects>
      <tilted>0</tilted></_>
    <_>
      <rects>
        <_>
          34 32 2 16 -1.</_>
        <_>
          34 32 1 8 2.</_>
        <_>
          35 40 1 8 2.</_></rects>
      <tilted>0</tilted></_>
    <_>
      <rects>
        <_>
          49 22 1 10 -1.</_>
        <_>
          49 27 1 5 2.</_></rects>
      <tilted>0</tilted></_></features></cascade>
</opencv_storage>
