<?xml version="1.0"?>
<opencv_storage>
<cascade>
  <stageType>BOOST</stageType>
  <featureType>HAAR</featureType>
  <height>32</height>
  <width>32</width>
  <stageParams>
    <boostType>GAB</boostType>
    <minHitRate>9.9500000476837158e-01</minHitRate>
    <maxFalseAlarm>5.0000000000000000e-01</maxFalseAlarm>
    <weightTrimRate>9.4999998807907104e-01</weightTrimRate>
    <maxDepth>1</maxDepth>
    <maxWeakCount>100</maxWeakCount></stageParams>
  <featureParams>
    <maxCatCount>0</maxCatCount>
    <featSize>1</featSize>
    <mode>BASIC</mode></featureParams>
  <stageNum>7</stageNum>
  <stages>
    <!-- stage 0 -->
    <_>
      <maxWeakCount>2</maxWeakCount>
      <stageThreshold>-6.1158776283264160e-02</stageThreshold>
      <weakClassifiers>
        <_>
          <internalNodes>
            0 -1 6 -9.4706311821937561e-02</internalNodes>
          <leafValues>
            9.2660552263259888e-01 -9.9482202529907227e-01</leafValues></_>
        <_>
          <internalNodes>
            0 -1 10 -4.3983761221170425e-02</internalNodes>
          <leafValues>
            9.5556509494781494e-01 -9.8776429891586304e-01</leafValues></_></weakClassifiers></_>
    <!-- stage 1 -->
    <_>
      <maxWeakCount>2</maxWeakCount>
      <stageThreshold>-2.5878608226776123e-01</stageThreshold>
      <weakClassifiers>
        <_>
          <internalNodes>
            0 -1 11 4.2278930544853210e-02</internalNodes>
          <leafValues>
            -9.8317152261734009e-01 7.6146787405014038e-01</leafValues></_>
        <_>
          <internalNodes>
            0 -1 1 7.2102367877960205e-02</internalNodes>
          <leafValues>
            -9.9209827184677124e-01 7.2438544034957886e-01</leafValues></_></weakClassifiers></_>
    <!-- stage 2 -->
    <_>
      <maxWeakCount>3</maxWeakCount>
      <stageThreshold>-1.4814252853393555e+00</stageThreshold>
      <weakClassifiers>
        <_>
          <internalNodes>
            0 -1 18 5.5444441735744476e-02</internalNodes>
          <leafValues>
            -9.7338658571243286e-01 1.7880794405937195e-01</leafValues></_>
        <_>
          <internalNodes>
            0 -1 4 -1.1390973627567291e-01</internalNodes>
          <leafValues>
            3.4395334124565125e-01 -9.2853188514709473e-01</leafValues></_>
        <_>
          <internalNodes>
            0 -1 8 -8.6971325799822807e-04</internalNodes>
          <leafValues>
            4.2049312591552734e-01 -9.6307373046875000e-01</leafValues></_></weakClassifiers></_>
    <!-- stage 3 -->
    <_>
      <maxWeakCount>3</maxWeakCount>
      <stageThreshold>-1.4100114107131958e+00</stageThreshold>
      <weakClassifiers>
        <_>
          <internalNodes>
            0 -1 3 8.1989482045173645e-02</internalNodes>
          <leafValues>
            -9.4855302572250366e-01 3.9393940567970276e-01</leafValues></_>
        <_>
          <internalNodes>
            0 -1 5 2.8369987383484840e-02</internalNodes>
          <leafValues>
            -9.1304963827133179e-01 4.8001578450202942e-01</leafValues></_>
        <_>
          <internalNodes>
            0 -1 19 8.0421809107065201e-03</internalNodes>
          <leafValues>
            -9.4147419929504395e-01 4.5995619893074036e-01</leafValues></_></weakClassifiers></_>
    <!-- stage 4 -->
    <_>
      <maxWeakCount>3</maxWeakCount>
      <stageThreshold>-1.5374608039855957e+00</stageThreshold>
      <weakClassifiers>
        <_>
          <internalNodes>
            0 -1 9 -1.0407757759094238e-01</internalNodes>
          <leafValues>
            6.8322978913784027e-02 -9.6918952465057373e-01</leafValues></_>
        <_>
          <internalNodes>
            0 -1 2 4.6899311244487762e-02</internalNodes>
          <leafValues>
            -9.1093403100967407e-01 5.3024441003799438e-01</leafValues></_>
        <_>
          <internalNodes>
            0 -1 16 1.0913291480392218e-03</internalNodes>
          <leafValues>
            -9.9533408880233765e-01 3.4266278147697449e-01</leafValues></_></weakClassifiers></_>
    <!-- stage 5 -->
    <_>
      <maxWeakCount>3</maxWeakCount>
      <stageThreshold>-1.3859487771987915e+00</stageThreshold>
      <weakClassifiers>
        <_>
          <internalNodes>
            0 -1 13 1.2052369862794876e-01</internalNodes>
          <leafValues>
            -9.4256544113159180e-01 4.7126436233520508e-01</leafValues></_>
        <_>
          <internalNodes>
            0 -1 14 6.9889180362224579e-02</internalNodes>
          <leafValues>
            -9.0111631155014038e-01 5.6008005142211914e-01</leafValues></_>
        <_>
          <internalNodes>
            0 -1 15 5.3433030843734741e-02</internalNodes>
          <leafValues>
            -9.2175674438476563e-01 4.5773291587829590e-01</leafValues></_></weakClassifiers></_>
    <!-- stage 6 -->
    <_>
      <maxWeakCount>4</maxWeakCount>
      <stageThreshold>-2.3557579517364502e+00</stageThreshold>
      <weakClassifiers>
        <_>
          <internalNodes>
            0 -1 7 -1.5644282102584839e-01</internalNodes>
          <leafValues>
            -1.9313304126262665e-01 -9.7888809442520142e-01</leafValues></_>
        <_>
          <internalNodes>
            0 -1 17 -7.1631348691880703e-04</internalNodes>
          <leafValues>
            2.7872452139854431e-01 -9.1302543878555298e-01</leafValues></_>
        <_>
          <internalNodes>
            0 -1 0 -1.9412869587540627e-02</internalNodes>
          <leafValues>
            5.2636498212814331e-01 -7.8801232576370239e-01</leafValues></_>
        <_>
          <internalNodes>
            0 -1 12 -5.0265667960047722e-03</internalNodes>
          <leafValues>
            5.1824921369552612e-01 -8.6758190393447876e-01</leafValues></_></weakClassifiers></_></stages>
  <features>
    <_>
      <rects>
        <_>
          0 1 12 6 -1.</_>
        <_>
          0 1 6 3 2.</_>
        <_>
          6 4 6 3 2.</_></rects>
      <tilted>0</tilted></_>
    <_>
      <rects>
        <_>
          1 3 12 16 -1.</_>
        <_>
          1 3 6 8 2.</_>
        <_>
          7 11 6 8 2.</_></rects>
      <tilted>0</tilted></_>
    <_>
      <rects>
        <_>
          2 4 18 6 -1.</_>
        <_>
          2 4 9 3 2.</_>
        <_>
          11 7 9 3 2.</_></rects>
      <tilted>0</tilted></_>
    <_>
      <rects>
        <_>
          3 3 18 8 -1.</_>
        <_>
          3 3 9 4 2.</_>
        <_>
          12 7 9 4 2.</_></rects>
      <tilted>0</tilted></_>
    <_>
      <rects>
        <_>
          4 7 18 14 -1.</_>
        <_>
          4 7 9 7 2.</_>
        <_>
          13 14 9 7 2.</_></rects>
      <tilted>0</tilted></_>
    <_>
      <rects>
        <_>
          5 11 4 12 -1.</_>
        <_>
          5 15 4 4 3.</_></rects>
      <tilted>0</tilted></_>
    <_>
      <rects>
        <_>
          6 7 18 12 -1.</_>
        <_>
          6 7 9 6 2.</_>
        <_>
          15 13 9 6 2.</_></rects>
      <tilted>0</tilted></_>
    <_>
      <rects>
        <_>
          7 5 20 14 -1.</_>
        <_>
          7 5 10 7 2.</_>
        <_>
          17 12 10 7 2.</_></rects>
      <tilted>0</tilted></_>
    <_>
      <rects>
        <_>
          7 19 4 8 -1.</_>
        <_>
          9 19 2 8 2.</_></rects>
      <tilted>0</tilted></_>
    <_>
      <rects>
        <_>
          10 5 18 12 -1.</_>
        <_>
          10 5 9 6 2.</_>
        <_>
          19 11 9 6 2.</_></rects>
      <tilted>0</tilted></_>
    <_>
      <rects>
        <_>
          11 0 16 9 -1.</_>
        <_>
          11 3 16 3 3.</_></rects>
      <tilted>0</tilted></_>
    <_>
      <rects>
        <_>
          13 15 14 8 -1.</_>
        <_>
          13 15 7 4 2.</_>
        <_>
          20 19 7 4 2.</_></rects>
      <tilted>0</tilted></_>
    <_>
      <rects>
        <_>
          15 8 4 12 -1.</_>
        <_>
          15 8 2 6 2.</_>
        <_>
          17 14 2 6 2.</_></rects>
      <tilted>0</tilted></_>
    <_>
      <rects>
        <_>
          15 18 10 14 -1.</_>
        <_>
          15 25 10 7 2.</_></rects>
      <tilted>0</tilted></_>
    <_>
      <rects>
        <_>
          18 2 9 12 -1.</_>
        <_>
          18 6 9 4 3.</_></rects>
      <tilted>0</tilted></_>
    <_>
      <rects>
        <_>
          18 10 14 12 -1.</_>
        <_>
          18 10 7 6 2.</_>
        <_>
          25 16 7 6 2.</_></rects>
      <tilted>0</tilted></_>
    <_>
      <rects>
        <_>
          19 2 4 6 -1.</_>
        <_>
          21 2 2 6 2.</_></rects>
      <tilted>0</tilted></_>
    <_>
      <rects>
        <_>
          22 0 3 2 -1.</_>
        <_>
          22 1 3 1 2.</_></rects>
      <tilted>0</tilted></_>
    <_>
      <rects>
        <_>
          22 6 8 16 -1.</_>
        <_>
          22 6 4 8 2.</_>
        <_>
          26 14 4 8 2.</_></rects>
      <tilted>0</tilted></_>
    <_>
      <rects>
        <_>
          28 3 4 15 -1.</_>
        <_>
          30 3 2 15 2.</_></rects>
      <tilted>0</tilted></_></features></cascade>
</opencv_storage>
